<?xml version="1.0"?>
<opencv_storage>
<cascade>
  <stageType>BOOST</stageType>
  <featureType>HAAR</featureType>
  <height>50</height>
  <width>50</width>
  <stageParams>
    <boostType>GAB</boostType>
    <minHitRate>9.9500000476837158e-01</minHitRate>
    <maxFalseAlarm>5.0000000000000000e-01</maxFalseAlarm>
    <weightTrimRate>9.4999999999999996e-01</weightTrimRate>
    <maxDepth>1</maxDepth>
    <maxWeakCount>100</maxWeakCount></stageParams>
  <featureParams>
    <maxCatCount>0</maxCatCount>
    <featSize>1</featSize>
    <mode>BASIC</mode></featureParams>
  <stageNum>10</stageNum>
  <stages>
    <!-- stage 0 -->
    <_>
      <maxWeakCount>3</maxWeakCount>
      <stageThreshold>-3.4388076514005661e-02</stageThreshold>
      <weakClassifiers>
        <_>
          <internalNodes>
            0 -1 59 9.1413967311382294e-04</internalNodes>
          <leafValues>
            6.3604855537414551e-01 -7.4887889623641968e-01</leafValues></_>
        <_>
          <internalNodes>
            0 -1 20 1.4014622138347477e-04</internalNodes>
          <leafValues>
            4.0709105134010315e-01 -8.2130885124206543e-01</leafValues></_>
        <_>
          <internalNodes>
            0 -1 56 -8.8591159510542639e-06</internalNodes>
          <leafValues>
            -9.3981283903121948e-01 3.0739980936050415e-01</leafValues></_></weakClassifiers></_>
    <!-- stage 1 -->
    <_>
      <maxWeakCount>4</maxWeakCount>
      <stageThreshold>-7.9224622249603271e-01</stageThreshold>
      <weakClassifiers>
        <_>
          <internalNodes>
            0 -1 56 7.6645646913675591e-06</internalNodes>
          <leafValues>
            6.2251657247543335e-01 -8.9795917272567749e-01</leafValues></_>
        <_>
          <internalNodes>
            0 -1 58 4.7081618686206639e-04</internalNodes>
          <leafValues>
            3.7006932497024536e-01 -8.6935281753540039e-01</leafValues></_>
        <_>
          <internalNodes>
            0 -1 2 8.0128945410251617e-04</internalNodes>
          <leafValues>
            3.2411500811576843e-01 -7.1086281538009644e-01</leafValues></_>
        <_>
          <internalNodes>
            0 -1 53 -1.1192610691068694e-04</internalNodes>
          <leafValues>
            -8.6952495574951172e-01 2.9315695166587830e-01</leafValues></_></weakClassifiers></_>
    <!-- stage 2 -->
    <_>
      <maxWeakCount>7</maxWeakCount>
      <stageThreshold>-8.4771186113357544e-01</stageThreshold>
      <weakClassifiers>
        <_>
          <internalNodes>
            0 -1 8 -5.5466545745730400e-04</internalNodes>
          <leafValues>
            -8.4285712242126465e-01 4.8181816935539246e-01</leafValues></_>
        <_>
          <internalNodes>
            0 -1 9 2.6061612879857421e-04</internalNodes>
          <leafValues>
            3.5327753424644470e-01 -7.7701699733734131e-01</leafValues></_>
        <_>
          <internalNodes>
            0 -1 24 -5.6914873421192169e-03</internalNodes>
          <leafValues>
            8.0074155330657959e-01 -3.3245274424552917e-01</leafValues></_>
        <_>
          <internalNodes>
            0 -1 13 -1.4178935089148581e-04</internalNodes>
          <leafValues>
            4.1649278998374939e-01 -5.6523591279983521e-01</leafValues></_>
        <_>
          <internalNodes>
            0 -1 34 3.1733061186969280e-03</internalNodes>
          <leafValues>
            -3.8793221116065979e-01 6.9750231504440308e-01</leafValues></_>
        <_>
          <internalNodes>
            0 -1 39 -3.7676520878449082e-04</internalNodes>
          <leafValues>
            -7.9611670970916748e-01 4.3954804539680481e-01</leafValues></_>
        <_>
          <internalNodes>
            0 -1 44 -5.6515615142416209e-05</internalNodes>
          <leafValues>
            -6.8816888332366943e-01 3.0803367495536804e-01</leafValues></_></weakClassifiers></_>
    <!-- stage 3 -->
    <_>
      <maxWeakCount>7</maxWeakCount>
      <stageThreshold>-7.8006231784820557e-01</stageThreshold>
      <weakClassifiers>
        <_>
          <internalNodes>
            0 -1 23 2.3723300546407700e-03</internalNodes>
          <leafValues>
            4.4411763548851013e-01 -8.5000002384185791e-01</leafValues></_>
        <_>
          <internalNodes>
            0 -1 15 -1.7770666163414717e-03</internalNodes>
          <leafValues>
            6.7621785402297974e-01 -3.7214469909667969e-01</leafValues></_>
        <_>
          <internalNodes>
            0 -1 60 2.7338373474776745e-03</internalNodes>
          <leafValues>
            3.2851281762123108e-01 -8.8588160276412964e-01</leafValues></_>
        <_>
          <internalNodes>
            0 -1 54 7.8694174590054899e-06</internalNodes>
          <leafValues>
            2.0240092277526855e-01 -7.7073210477828979e-01</leafValues></_>
        <_>
          <internalNodes>
            0 -1 10 2.9084255220368505e-04</internalNodes>
          <leafValues>
            2.0155785977840424e-01 -9.1879731416702271e-01</leafValues></_>
        <_>
          <internalNodes>
            0 -1 19 -9.6075056353583932e-04</internalNodes>
          <leafValues>
            -7.7037346363067627e-01 2.0746836066246033e-01</leafValues></_>
        <_>
          <internalNodes>
            0 -1 21 -9.6032093279063702e-04</internalNodes>
          <leafValues>
            4.0026095509529114e-01 -4.9472391605377197e-01</leafValues></_></weakClassifiers></_>
    <!-- stage 4 -->
    <_>
      <maxWeakCount>6</maxWeakCount>
      <stageThreshold>-1.9488437473773956e-01</stageThreshold>
      <weakClassifiers>
        <_>
          <internalNodes>
            0 -1 46 1.7501830370747484e-05</internalNodes>
          <leafValues>
            -4.8207172751426697e-01 5.8469945192337036e-01</leafValues></_>
        <_>
          <internalNodes>
            0 -1 41 -6.0414656763896346e-04</internalNodes>
          <leafValues>
            -7.8585112094879150e-01 3.1791436672210693e-01</leafValues></_>
        <_>
          <internalNodes>
            0 -1 40 3.9558825665153563e-04</internalNodes>
          <leafValues>
            3.8057184219360352e-01 -6.5521442890167236e-01</leafValues></_>
        <_>
          <internalNodes>
            0 -1 14 -1.8806699663400650e-02</internalNodes>
          <leafValues>
            8.5750329494476318e-01 -3.2895374298095703e-01</leafValues></_>
        <_>
          <internalNodes>
            0 -1 30 5.0764097832143307e-03</internalNodes>
          <leafValues>
            -4.4475218653678894e-01 6.7645984888076782e-01</leafValues></_>
        <_>
          <internalNodes>
            0 -1 26 3.5315874265506864e-04</internalNodes>
          <leafValues>
            3.9940139651298523e-01 -7.6672428846359253e-01</leafValues></_></weakClassifiers></_>
    <!-- stage 5 -->
    <_>
      <maxWeakCount>6</maxWeakCount>
      <stageThreshold>-4.5473086833953857e-01</stageThreshold>
      <weakClassifiers>
        <_>
          <internalNodes>
            0 -1 50 2.6074229390360415e-04</internalNodes>
          <leafValues>
            4.8780488967895508e-01 -8.3333331346511841e-01</leafValues></_>
        <_>
          <internalNodes>
            0 -1 57 -1.7287558875977993e-04</internalNodes>
          <leafValues>
            -8.8016360998153687e-01 2.3797106742858887e-01</leafValues></_>
        <_>
          <internalNodes>
            0 -1 47 1.2460135621950030e-05</internalNodes>
          <leafValues>
            -5.6121772527694702e-01 3.6001121997833252e-01</leafValues></_>
        <_>
          <internalNodes>
            0 -1 37 -4.1883194353431463e-04</internalNodes>
          <leafValues>
            -8.5722815990447998e-01 2.2766613960266113e-01</leafValues></_>
        <_>
          <internalNodes>
            0 -1 36 7.4788631172850728e-04</internalNodes>
          <leafValues>
            2.6807790994644165e-01 -7.8275209665298462e-01</leafValues></_>
        <_>
          <internalNodes>
            0 -1 3 1.7641850281506777e-03</internalNodes>
          <leafValues>
            2.0610505342483521e-01 -8.5948258638381958e-01</leafValues></_></weakClassifiers></_>
    <!-- stage 6 -->
    <_>
      <maxWeakCount>8</maxWeakCount>
      <stageThreshold>-4.5692595839500427e-01</stageThreshold>
      <weakClassifiers>
        <_>
          <internalNodes>
            0 -1 17 -1.6358437278540805e-05</internalNodes>
          <leafValues>
            -8.7037038803100586e-01 4.2485550045967102e-01</leafValues></_>
        <_>
          <internalNodes>
            0 -1 31 1.3677512470167130e-04</internalNodes>
          <leafValues>
            -4.9014803767204285e-01 4.7042024135589600e-01</leafValues></_>
        <_>
          <internalNodes>
            0 -1 5 -8.2371030002832413e-03</internalNodes>
          <leafValues>
            8.2220661640167236e-01 -2.4985572695732117e-01</leafValues></_>
        <_>
          <internalNodes>
            0 -1 16 3.1336871907114983e-03</internalNodes>
          <leafValues>
            -2.5088220834732056e-01 8.4440380334854126e-01</leafValues></_>
        <_>
          <internalNodes>
            0 -1 35 -3.4183508250862360e-04</internalNodes>
          <leafValues>
            -8.2177466154098511e-01 3.1902074813842773e-01</leafValues></_>
        <_>
          <internalNodes>
            0 -1 7 -7.0872874930500984e-03</internalNodes>
          <leafValues>
            6.2991839647293091e-01 -3.7617194652557373e-01</leafValues></_>
        <_>
          <internalNodes>
            0 -1 11 -1.5693447494413704e-05</internalNodes>
          <leafValues>
            -8.8648658990859985e-01 2.9201245307922363e-01</leafValues></_>
        <_>
          <internalNodes>
            0 -1 32 6.7241187207400799e-04</internalNodes>
          <leafValues>
            2.0890085399150848e-01 -7.8928917646408081e-01</leafValues></_></weakClassifiers></_>
    <!-- stage 7 -->
    <_>
      <maxWeakCount>6</maxWeakCount>
      <stageThreshold>-8.5100877285003662e-01</stageThreshold>
      <weakClassifiers>
        <_>
          <internalNodes>
            0 -1 33 -6.3749542459845543e-04</internalNodes>
          <leafValues>
            -6.4583331346511841e-01 5.3289473056793213e-01</leafValues></_>
        <_>
          <internalNodes>
            0 -1 51 1.9797262211795896e-04</internalNodes>
          <leafValues>
            -5.4239517450332642e-01 4.6974900364875793e-01</leafValues></_>
        <_>
          <internalNodes>
            0 -1 12 3.5551682231016457e-05</internalNodes>
          <leafValues>
            3.2170662283897400e-01 -8.1317692995071411e-01</leafValues></_>
        <_>
          <internalNodes>
            0 -1 43 1.1535568773979321e-04</internalNodes>
          <leafValues>
            -5.2493357658386230e-01 5.0499778985977173e-01</leafValues></_>
        <_>
          <internalNodes>
            0 -1 1 -2.7334224432706833e-03</internalNodes>
          <leafValues>
            -6.9729381799697876e-01 3.0671632289886475e-01</leafValues></_>
        <_>
          <internalNodes>
            0 -1 45 -1.2889874051325023e-04</internalNodes>
          <leafValues>
            -9.5472347736358643e-01 1.8988586962223053e-01</leafValues></_></weakClassifiers></_>
    <!-- stage 8 -->
    <_>
      <maxWeakCount>8</maxWeakCount>
      <stageThreshold>-1.1553528308868408e+00</stageThreshold>
      <weakClassifiers>
        <_>
          <internalNodes>
            0 -1 0 8.0240983515977859e-04</internalNodes>
          <leafValues>
            4.9767440557479858e-01 -7.8064513206481934e-01</leafValues></_>
        <_>
          <internalNodes>
            0 -1 4 -2.2312970831990242e-03</internalNodes>
          <leafValues>
            -7.3959159851074219e-01 3.1462514400482178e-01</leafValues></_>
        <_>
          <internalNodes>
            0 -1 52 2.5313970400020480e-04</internalNodes>
          <leafValues>
            -4.1431754827499390e-01 5.7337760925292969e-01</leafValues></_>
        <_>
          <internalNodes>
            0 -1 55 1.6378773580072448e-05</internalNodes>
          <leafValues>
            -4.0617793798446655e-01 4.6403461694717407e-01</leafValues></_>
        <_>
          <internalNodes>
            0 -1 25 -5.0663203001022339e-04</internalNodes>
          <leafValues>
            -7.4090808629989624e-01 2.7479836344718933e-01</leafValues></_>
        <_>
          <internalNodes>
            0 -1 22 3.5367070813663304e-04</internalNodes>
          <leafValues>
            2.4231293797492981e-01 -7.1879410743713379e-01</leafValues></_>
        <_>
          <internalNodes>
            0 -1 29 3.6237896420061588e-03</internalNodes>
          <leafValues>
            -2.8765553236007690e-01 8.5858601331710815e-01</leafValues></_>
        <_>
          <internalNodes>
            0 -1 42 2.2112755686976016e-05</internalNodes>
          <leafValues>
            -3.2239601016044617e-01 5.6327092647552490e-01</leafValues></_></weakClassifiers></_>
    <!-- stage 9 -->
    <_>
      <maxWeakCount>7</maxWeakCount>
      <stageThreshold>-2.7755376696586609e-01</stageThreshold>
      <weakClassifiers>
        <_>
          <internalNodes>
            0 -1 49 1.4493307389784604e-05</internalNodes>
          <leafValues>
            -4.0833333134651184e-01 5.3214287757873535e-01</leafValues></_>
        <_>
          <internalNodes>
            0 -1 38 5.5527910590171814e-03</internalNodes>
          <leafValues>
            -1.6022029519081116e-01 8.5412323474884033e-01</leafValues></_>
        <_>
          <internalNodes>
            0 -1 18 -8.5835484787821770e-04</internalNodes>
          <leafValues>
            6.1743330955505371e-01 -2.6132094860076904e-01</leafValues></_>
        <_>
          <internalNodes>
            0 -1 6 -1.3329500332474709e-02</internalNodes>
          <leafValues>
            6.2334787845611572e-01 -2.6212474703788757e-01</leafValues></_>
        <_>
          <internalNodes>
            0 -1 48 3.9674097206443548e-04</internalNodes>
          <leafValues>
            -3.7855923175811768e-01 4.8759526014328003e-01</leafValues></_>
        <_>
          <internalNodes>
            0 -1 28 8.7132223416119814e-04</internalNodes>
          <leafValues>
            2.5356838107109070e-01 -8.0135506391525269e-01</leafValues></_>
        <_>
          <internalNodes>
            0 -1 27 -5.6037574540823698e-04</internalNodes>
          <leafValues>
            -8.0547225475311279e-01 1.9457958638668060e-01</leafValues></_></weakClassifiers></_></stages>
  <features>
    <_>
      <rects>
        <_>
          0 0 1 26 -1.</_>
        <_>
          0 13 1 13 2.</_></rects>
      <tilted>0</tilted></_>
    <_>
      <rects>
        <_>
          0 0 1 48 -1.</_>
        <_>
          0 16 1 16 3.</_></rects>
      <tilted>0</tilted></_>
    <_>
      <rects>
        <_>
          0 0 1 38 -1.</_>
        <_>
          0 19 1 19 2.</_></rects>
      <tilted>0</tilted></_>
    <_>
      <rects>
        <_>
          0 3 1 45 -1.</_>
        <_>
          0 18 1 15 3.</_></rects>
      <tilted>0</tilted></_>
    <_>
      <rects>
        <_>
          0 5 1 45 -1.</_>
        <_>
          0 20 1 15 3.</_></rects>
      <tilted>0</tilted></_>
    <_>
      <rects>
        <_>
          0 8 6 22 -1.</_>
        <_>
          3 8 3 22 2.</_></rects>
      <tilted>0</tilted></_>
    <_>
      <rects>
        <_>
          0 11 10 32 -1.</_>
        <_>
          0 11 5 16 2.</_>
        <_>
          5 27 5 16 2.</_></rects>
      <tilted>0</tilted></_>
    <_>
      <rects>
        <_>
          0 15 14 5 -1.</_>
        <_>
          7 15 7 5 2.</_></rects>
      <tilted>0</tilted></_>
    <_>
      <rects>
        <_>
          0 28 1 18 -1.</_>
        <_>
          0 34 1 6 3.</_></rects>
      <tilted>0</tilted></_>
    <_>
      <rects>
        <_>
          0 29 1 15 -1.</_>
        <_>
          0 34 1 5 3.</_></rects>
      <tilted>0</tilted></_>
    <_>
      <rects>
        <_>
          0 47 8 2 -1.</_>
        <_>
          4 47 4 2 2.</_></rects>
      <tilted>0</tilted></_>
    <_>
      <rects>
        <_>
          0 48 2 2 -1.</_>
        <_>
          0 48 1 1 2.</_>
        <_>
          1 49 1 1 2.</_></rects>
      <tilted>0</tilted></_>
    <_>
      <rects>
        <_>
          0 48 4 2 -1.</_>
        <_>
          0 48 2 1 2.</_>
        <_>
          2 49 2 1 2.</_></rects>
      <tilted>0</tilted></_>
    <_>
      <rects>
        <_>
          0 49 30 1 -1.</_>
        <_>
          15 49 15 1 2.</_></rects>
      <tilted>0</tilted></_>
    <_>
      <rects>
        <_>
          1 3 48 3 -1.</_>
        <_>
          17 3 16 3 3.</_></rects>
      <tilted>0</tilted></_>
    <_>
      <rects>
        <_>
          1 16 4 21 -1.</_>
        <_>
          3 16 2 21 2.</_></rects>
      <tilted>0</tilted></_>
    <_>
      <rects>
        <_>
          1 16 8 4 -1.</_>
        <_>
          5 16 4 4 2.</_></rects>
      <tilted>0</tilted></_>
    <_>
      <rects>
        <_>
          1 48 2 2 -1.</_>
        <_>
          1 48 1 1 2.</_>
        <_>
          2 49 1 1 2.</_></rects>
      <tilted>0</tilted></_>
    <_>
      <rects>
        <_>
          2 13 2 22 -1.</_>
        <_>
          3 13 1 22 2.</_></rects>
      <tilted>0</tilted></_>
    <_>
      <rects>
        <_>
          2 13 41 3 -1.</_>
        <_>
          2 14 41 1 3.</_></rects>
      <tilted>0</tilted></_>
    <_>
      <rects>
        <_>
          3 49 10 1 -1.</_>
        <_>
          8 49 5 1 2.</_></rects>
      <tilted>0</tilted></_>
    <_>
      <rects>
        <_>
          4 48 22 2 -1.</_>
        <_>
          15 48 11 2 2.</_></rects>
      <tilted>0</tilted></_>
    <_>
      <rects>
        <_>
          7 24 3 22 -1.</_>
        <_>
          8 24 1 22 3.</_></rects>
      <tilted>0</tilted></_>
    <_>
      <rects>
        <_>
          8 49 42 1 -1.</_>
        <_>
          22 49 14 1 3.</_></rects>
      <tilted>0</tilted></_>
    <_>
      <rects>
        <_>
          19 0 9 6 -1.</_>
        <_>
          19 3 9 3 2.</_></rects>
      <tilted>0</tilted></_>
    <_>
      <rects>
        <_>
          19 11 3 38 -1.</_>
        <_>
          20 11 1 38 3.</_></rects>
      <tilted>0</tilted></_>
    <_>
      <rects>
        <_>
          19 34 3 15 -1.</_>
        <_>
          20 34 1 15 3.</_></rects>
      <tilted>0</tilted></_>
    <_>
      <rects>
        <_>
          20 7 3 41 -1.</_>
        <_>
          21 7 1 41 3.</_></rects>
      <tilted>0</tilted></_>
    <_>
      <rects>
        <_>
          20 11 3 33 -1.</_>
        <_>
          21 11 1 33 3.</_></rects>
      <tilted>0</tilted></_>
    <_>
      <rects>
        <_>
          20 44 18 2 -1.</_>
        <_>
          29 44 9 2 2.</_></rects>
      <tilted>0</tilted></_>
    <_>
      <rects>
        <_>
          22 0 10 8 -1.</_>
        <_>
          22 4 10 4 2.</_></rects>
      <tilted>0</tilted></_>
    <_>
      <rects>
        <_>
          22 48 14 2 -1.</_>
        <_>
          22 49 14 1 2.</_></rects>
      <tilted>0</tilted></_>
    <_>
      <rects>
        <_>
          23 0 3 50 -1.</_>
        <_>
          24 0 1 50 3.</_></rects>
      <tilted>0</tilted></_>
    <_>
      <rects>
        <_>
          23 6 3 40 -1.</_>
        <_>
          24 6 1 40 3.</_></rects>
      <tilted>0</tilted></_>
    <_>
      <rects>
        <_>
          24 0 5 6 -1.</_>
        <_>
          24 3 5 3 2.</_></rects>
      <tilted>0</tilted></_>
    <_>
      <rects>
        <_>
          26 20 3 10 -1.</_>
        <_>
          27 20 1 10 3.</_></rects>
      <tilted>0</tilted></_>
    <_>
      <rects>
        <_>
          28 2 3 38 -1.</_>
        <_>
          29 2 1 38 3.</_></rects>
      <tilted>0</tilted></_>
    <_>
      <rects>
        <_>
          28 15 3 12 -1.</_>
        <_>
          29 15 1 12 3.</_></rects>
      <tilted>0</tilted></_>
    <_>
      <rects>
        <_>
          31 0 5 10 -1.</_>
        <_>
          31 5 5 5 2.</_></rects>
      <tilted>0</tilted></_>
    <_>
      <rects>
        <_>
          31 32 3 16 -1.</_>
        <_>
          32 32 1 16 3.</_></rects>
      <tilted>0</tilted></_>
    <_>
      <rects>
        <_>
          32 14 3 22 -1.</_>
        <_>
          33 14 1 22 3.</_></rects>
      <tilted>0</tilted></_>
    <_>
      <rects>
        <_>
          32 18 3 30 -1.</_>
        <_>
          33 18 1 30 3.</_></rects>
      <tilted>0</tilted></_>
    <_>
      <rects>
        <_>
          39 45 4 2 -1.</_>
        <_>
          41 45 2 2 2.</_></rects>
      <tilted>0</tilted></_>
    <_>
      <rects>
        <_>
          40 43 6 5 -1.</_>
        <_>
          43 43 3 5 2.</_></rects>
      <tilted>0</tilted></_>
    <_>
      <rects>
        <_>
          41 46 8 1 -1.</_>
        <_>
          45 46 4 1 2.</_></rects>
      <tilted>0</tilted></_>
    <_>
      <rects>
        <_>
          43 49 6 1 -1.</_>
        <_>
          45 49 2 1 3.</_></rects>
      <tilted>0</tilted></_>
    <_>
      <rects>
        <_>
          44 46 6 3 -1.</_>
        <_>
          47 46 3 3 2.</_></rects>
      <tilted>0</tilted></_>
    <_>
      <rects>
        <_>
          45 44 4 1 -1.</_>
        <_>
          47 44 2 1 2.</_></rects>
      <tilted>0</tilted></_>
    <_>
      <rects>
        <_>
          46 20 4 8 -1.</_>
        <_>
          48 20 2 8 2.</_></rects>
      <tilted>0</tilted></_>
    <_>
      <rects>
        <_>
          46 43 4 3 -1.</_>
        <_>
          48 43 2 3 2.</_></rects>
      <tilted>0</tilted></_>
    <_>
      <rects>
        <_>
          48 0 2 6 -1.</_>
        <_>
          48 3 2 3 2.</_></rects>
      <tilted>0</tilted></_>
    <_>
      <rects>
        <_>
          48 11 2 33 -1.</_>
        <_>
          49 11 1 33 2.</_></rects>
      <tilted>0</tilted></_>
    <_>
      <rects>
        <_>
          48 19 2 17 -1.</_>
        <_>
          49 19 1 17 2.</_></rects>
      <tilted>0</tilted></_>
    <_>
      <rects>
        <_>
          48 40 2 10 -1.</_>
        <_>
          49 40 1 10 2.</_></rects>
      <tilted>0</tilted></_>
    <_>
      <rects>
        <_>
          48 42 2 2 -1.</_>
        <_>
          48 42 1 1 2.</_>
        <_>
          49 43 1 1 2.</_></rects>
      <tilted>0</tilted></_>
    <_>
      <rects>
        <_>
          48 46 2 4 -1.</_>
        <_>
          48 48 2 2 2.</_></rects>
      <tilted>0</tilted></_>
    <_>
      <rects>
        <_>
          48 48 2 2 -1.</_>
        <_>
          48 48 1 1 2.</_>
        <_>
          49 49 1 1 2.</_></rects>
      <tilted>0</tilted></_>
    <_>
      <rects>
        <_>
          49 0 1 6 -1.</_>
        <_>
          49 3 1 3 2.</_></rects>
      <tilted>0</tilted></_>
    <_>
      <rects>
        <_>
          49 0 1 20 -1.</_>
        <_>
          49 10 1 10 2.</_></rects>
      <tilted>0</tilted></_>
    <_>
      <rects>
        <_>
          49 0 1 50 -1.</_>
        <_>
          49 25 1 25 2.</_></rects>
      <tilted>0</tilted></_>
    <_>
      <rects>
        <_>
          49 4 1 45 -1.</_>
        <_>
          49 19 1 15 3.</_></rects>
      <tilted>0</tilted></_></features></cascade>
</opencv_storage>
