<?xml version="1.0"?>
<opencv_storage>
<stage3>
  <maxWeakCount>8</maxWeakCount>
  <stageThreshold>-1.1005642414093018e+00</stageThreshold>
  <weakClassifiers>
    <_>
      <internalNodes>
        0 -1 2924813 1.1164849274791777e-04</internalNodes>
      <leafValues>
        -4.9537035822868347e-01 4.7005987167358398e-01</leafValues></_>
    <_>
      <internalNodes>
        0 -1 680872 1.0527933482080698e-03</internalNodes>
      <leafValues>
        2.5399452447891235e-01 -7.3136568069458008e-01</leafValues></_>
    <_>
      <internalNodes>
        0 -1 54193 -1.7377526964992285e-03</internalNodes>
      <leafValues>
        5.5240547657012939e-01 -3.0826029181480408e-01</leafValues></_>
    <_>
      <internalNodes>
        0 -1 114678 1.4868969446979463e-04</internalNodes>
      <leafValues>
        1.8595065176486969e-01 -8.8965451717376709e-01</leafValues></_>
    <_>
      <internalNodes>
        0 -1 2651389 -6.7532097455114126e-04</internalNodes>
      <leafValues>
        -8.3044350147247314e-01 1.3632065057754517e-01</leafValues></_>
    <_>
      <internalNodes>
        0 -1 135303 -3.9184391498565674e-02</internalNodes>
      <leafValues>
        7.9613608121871948e-01 -2.3228146135807037e-01</leafValues></_>
    <_>
      <internalNodes>
        0 -1 2203403 4.2303977534174919e-04</internalNodes>
      <leafValues>
        -3.5685575008392334e-01 7.0702821016311646e-01</leafValues></_>
    <_>
      <internalNodes>
        0 -1 1783749 -3.4544165246188641e-03</internalNodes>
      <leafValues>
        6.5867739915847778e-01 -2.8406220674514771e-01</leafValues></_></weakClassifiers></stage3>
</opencv_storage>
