<?xml version="1.0"?>
<opencv_storage>
<stage5>
  <maxWeakCount>7</maxWeakCount>
  <stageThreshold>-7.1442705392837524e-01</stageThreshold>
  <weakClassifiers>
    <_>
      <internalNodes>
        0 -1 1540080 2.1281844237819314e-04</internalNodes>
      <leafValues>
        -4.1284403204917908e-01 5.8558559417724609e-01</leafValues></_>
    <_>
      <internalNodes>
        0 -1 3019953 -6.2610939494334161e-05</internalNodes>
      <leafValues>
        -7.7546501159667969e-01 2.9686170816421509e-01</leafValues></_>
    <_>
      <internalNodes>
        0 -1 2153890 5.0833844579756260e-04</internalNodes>
      <leafValues>
        2.7633431553840637e-01 -6.8761795759201050e-01</leafValues></_>
    <_>
      <internalNodes>
        0 -1 2164459 -3.9280339842662215e-04</internalNodes>
      <leafValues>
        -7.6093822717666626e-01 2.7314370870590210e-01</leafValues></_>
    <_>
      <internalNodes>
        0 -1 3023643 9.3420912889996544e-06</internalNodes>
      <leafValues>
        2.4518124759197235e-01 -8.4263533353805542e-01</leafValues></_>
    <_>
      <internalNodes>
        0 -1 46817 -1.1977877875324339e-04</internalNodes>
      <leafValues>
        4.2620846629142761e-01 -4.4723176956176758e-01</leafValues></_>
    <_>
      <internalNodes>
        0 -1 56 -1.9486707169562578e-03</internalNodes>
      <leafValues>
        -8.3423197269439697e-01 2.1696650981903076e-01</leafValues></_></weakClassifiers></stage5>
</opencv_storage>
