<?xml version="1.0"?>
<opencv_storage>
<stage6>
  <maxWeakCount>7</maxWeakCount>
  <stageThreshold>-7.6363593339920044e-01</stageThreshold>
  <weakClassifiers>
    <_>
      <internalNodes>
        0 -1 3019434 2.5158326025120914e-05</internalNodes>
      <leafValues>
        -4.4742268323898315e-01 5.1544713973999023e-01</leafValues></_>
    <_>
      <internalNodes>
        0 -1 2332931 -5.1615468692034483e-04</internalNodes>
      <leafValues>
        -8.1460523605346680e-01 2.6587933301925659e-01</leafValues></_>
    <_>
      <internalNodes>
        0 -1 1968927 4.4958994840271771e-04</internalNodes>
      <leafValues>
        2.8107732534408569e-01 -7.1466481685638428e-01</leafValues></_>
    <_>
      <internalNodes>
        0 -1 57902 -1.0278792120516300e-02</internalNodes>
      <leafValues>
        5.7685613632202148e-01 -3.8166645169258118e-01</leafValues></_>
    <_>
      <internalNodes>
        0 -1 54388 6.7069912329316139e-03</internalNodes>
      <leafValues>
        -2.3821547627449036e-01 7.9107630252838135e-01</leafValues></_>
    <_>
      <internalNodes>
        0 -1 3024720 9.8443451861385256e-05</internalNodes>
      <leafValues>
        2.9995390772819519e-01 -8.1436550617218018e-01</leafValues></_>
    <_>
      <internalNodes>
        0 -1 889520 -1.8573395907878876e-02</internalNodes>
      <leafValues>
        6.3485133647918701e-01 -3.9179232716560364e-01</leafValues></_></weakClassifiers></stage6>
</opencv_storage>
