<?xml version="1.0"?>
<opencv_storage>
<stage9>
  <maxWeakCount>6</maxWeakCount>
  <stageThreshold>-6.9106912612915039e-01</stageThreshold>
  <weakClassifiers>
    <_>
      <internalNodes>
        0 -1 3013164 6.9133631768636405e-05</internalNodes>
      <leafValues>
        -3.6296296119689941e-01 5.2857142686843872e-01</leafValues></_>
    <_>
      <internalNodes>
        0 -1 179092 -1.7705868231132627e-03</internalNodes>
      <leafValues>
        6.9392484426498413e-01 -2.5382268428802490e-01</leafValues></_>
    <_>
      <internalNodes>
        0 -1 2435865 2.5680153630673885e-03</internalNodes>
      <leafValues>
        -2.4343477189540863e-01 7.6877921819686890e-01</leafValues></_>
    <_>
      <internalNodes>
        0 -1 1933394 -4.5810798183083534e-03</internalNodes>
      <leafValues>
        6.9223421812057495e-01 -3.1136152148246765e-01</leafValues></_>
    <_>
      <internalNodes>
        0 -1 2203529 -8.8261207565665245e-04</internalNodes>
      <leafValues>
        -8.6838024854660034e-01 2.6248893141746521e-01</leafValues></_>
    <_>
      <internalNodes>
        0 -1 2760197 -3.8146635051816702e-04</internalNodes>
      <leafValues>
        -7.8557181358337402e-01 2.1847608685493469e-01</leafValues></_></weakClassifiers></stage9>
</opencv_storage>
